FANN_FLO_2.1
num_layers=3
learning_rate=0.700000
connection_rate=1.000000
network_type=0
learning_momentum=0.000000
training_algorithm=2
train_error_function=1
train_stop_function=0
cascade_output_change_fraction=0.010000
quickprop_decay=-0.000100
quickprop_mu=1.750000
rprop_increase_factor=1.200000
rprop_decrease_factor=0.500000
rprop_delta_min=0.000000
rprop_delta_max=50.000000
rprop_delta_zero=0.100000
cascade_output_stagnation_epochs=12
cascade_candidate_change_fraction=0.010000
cascade_candidate_stagnation_epochs=12
cascade_max_out_epochs=150
cascade_min_out_epochs=50
cascade_max_cand_epochs=150
cascade_min_cand_epochs=50
cascade_num_candidate_groups=2
bit_fail_limit=3.49999994039535522461e-01
cascade_candidate_limit=1.00000000000000000000e+03
cascade_weight_multiplier=4.00000005960464477539e-01
cascade_activation_functions_count=10
cascade_activation_functions=3 5 7 8 10 11 14 15 16 17 
cascade_activation_steepnesses_count=4
cascade_activation_steepnesses=2.50000000000000000000e-01 5.00000000000000000000e-01 7.50000000000000000000e-01 1.00000000000000000000e+00 
layer_sizes=65 4 3 
scale_included=0
neurons (num_inputs, activation_function, activation_steepness)=(0, 0, 0.00000000000000000000e+00) (0, 0, 0.00000000000000000000e+00) (0, 0, 0.00000000000000000000e+00) (0, 0, 0.00000000000000000000e+00) (0, 0, 0.00000000000000000000e+00) (0, 0, 0.00000000000000000000e+00) (0, 0, 0.00000000000000000000e+00) (0, 0, 0.00000000000000000000e+00) (0, 0, 0.00000000000000000000e+00) (0, 0, 0.00000000000000000000e+00) (0, 0, 0.00000000000000000000e+00) (0, 0, 0.00000000000000000000e+00) (0, 0, 0.00000000000000000000e+00) (0, 0, 0.00000000000000000000e+00) (0, 0, 0.00000000000000000000e+00) (0, 0, 0.00000000000000000000e+00) (0, 0, 0.00000000000000000000e+00) (0, 0, 0.00000000000000000000e+00) (0, 0, 0.00000000000000000000e+00) (0, 0, 0.00000000000000000000e+00) (0, 0, 0.00000000000000000000e+00) (0, 0, 0.00000000000000000000e+00) (0, 0, 0.00000000000000000000e+00) (0, 0, 0.00000000000000000000e+00) (0, 0, 0.00000000000000000000e+00) (0, 0, 0.00000000000000000000e+00) (0, 0, 0.00000000000000000000e+00) (0, 0, 0.00000000000000000000e+00) (0, 0, 0.00000000000000000000e+00) (0, 0, 0.00000000000000000000e+00) (0, 0, 0.00000000000000000000e+00) (0, 0, 0.00000000000000000000e+00) (0, 0, 0.00000000000000000000e+00) (0, 0, 0.00000000000000000000e+00) (0, 0, 0.00000000000000000000e+00) (0, 0, 0.00000000000000000000e+00) (0, 0, 0.00000000000000000000e+00) (0, 0, 0.00000000000000000000e+00) (0, 0, 0.00000000000000000000e+00) (0, 0, 0.00000000000000000000e+00) (0, 0, 0.00000000000000000000e+00) (0, 0, 0.00000000000000000000e+00) (0, 0, 0.00000000000000000000e+00) (0, 0, 0.00000000000000000000e+00) (0, 0, 0.00000000000000000000e+00) (0, 0, 0.00000000000000000000e+00) (0, 0, 0.00000000000000000000e+00) (0, 0, 0.00000000000000000000e+00) (0, 0, 0.00000000000000000000e+00) (0, 0, 0.00000000000000000000e+00) (0, 0, 0.00000000000000000000e+00) (0, 0, 0.00000000000000000000e+00) (0, 0, 0.00000000000000000000e+00) (0, 0, 0.00000000000000000000e+00) (0, 0, 0.00000000000000000000e+00) (0, 0, 0.00000000000000000000e+00) (0, 0, 0.00000000000000000000e+00) (0, 0, 0.00000000000000000000e+00) (0, 0, 0.00000000000000000000e+00) (0, 0, 0.00000000000000000000e+00) (0, 0, 0.00000000000000000000e+00) (0, 0, 0.00000000000000000000e+00) (0, 0, 0.00000000000000000000e+00) (0, 0, 0.00000000000000000000e+00) (0, 0, 0.00000000000000000000e+00) (65, 5, 5.00000000000000000000e-01) (65, 5, 5.00000000000000000000e-01) (65, 5, 5.00000000000000000000e-01) (0, 5, 0.00000000000000000000e+00) (4, 5, 5.00000000000000000000e-01) (4, 5, 5.00000000000000000000e-01) (0, 5, 0.00000000000000000000e+00) 
connections (connected_to_neuron, weight)=(0, 3.13724875450134277344e+00) (1, 5.40640449523925781250e+01) (2, 3.12418670654296875000e+02) (3, 1.50000000000000000000e+03) (4, -4.72691001892089843750e+01) (5, 8.90119323730468750000e+01) (6, 1.50000000000000000000e+03) (7, -1.49999926757812500000e+03) (8, -1.33430725097656250000e+03) (9, 1.49931042480468750000e+03) (10, -1.50000000000000000000e+03) (11, -1.14395324707031250000e+03) (12, -1.32728088378906250000e+03) (13, -1.32728088378906250000e+03) (14, 1.50000000000000000000e+03) (15, -1.49998095703125000000e+03) (16, -1.89882717132568359375e+01) (17, 5.39974365234375000000e+02) (18, -9.91525817871093750000e+02) (19, 1.50000000000000000000e+03) (20, -1.06736564636230468750e+01) (21, 4.04140233993530273438e+00) (22, -3.63925140380859375000e+02) (23, -1.30507775878906250000e+03) (24, 1.44823348999023437500e+02) (25, -1.16220573425292968750e+02) (26, 2.17714324951171875000e+02) (27, 2.41159698486328125000e+02) (28, -1.16253540039062500000e+03) (29, 1.50000000000000000000e+03) (30, -1.50000000000000000000e+03) (31, 1.33229843139648437500e+02) (32, -3.56387023925781250000e+01) (33, -1.47655810546875000000e+03) (34, 1.50000000000000000000e+03) (35, 1.50000000000000000000e+03) (36, 1.81224441528320312500e+01) (37, 2.24532413482666015625e+00) (38, -2.37500381469726562500e+02) (39, -9.91525817871093750000e+02) (40, -8.78510971069335937500e+01) (41, -6.33281326293945312500e+00) (42, 2.07714271545410156250e+00) (43, -3.14834842681884765625e+01) (44, 5.45193298339843750000e+02) (45, -2.24513671875000000000e+02) (46, -2.77179931640625000000e+02) (47, -1.44437011718750000000e+02) (48, -2.53375732421875000000e+02) (49, -1.50000000000000000000e+03) (50, 1.50000000000000000000e+03) (51, 1.50000000000000000000e+03) (52, 7.78526687622070312500e+00) (53, 1.35441955566406250000e+03) (54, 1.49986926269531250000e+03) (55, 1.50000000000000000000e+03) (56, 6.71658849716186523438e+00) (57, -2.26812725067138671875e+01) (58, -1.35646676644682884216e-02) (59, 6.74846252441406250000e+02) (60, 1.43276440429687500000e+03) (61, 2.98865173339843750000e+02) (62, 7.38972759246826171875e+00) (63, -6.48070755004882812500e+01) (64, 3.68910521268844604492e-01) (0, 2.43536353111267089844e-01) (1, 1.60652885437011718750e+01) (2, -4.21896209716796875000e+02) (3, 1.50000000000000000000e+03) (4, -4.55517530441284179688e+00) (5, -2.62374258041381835938e+00) (6, 3.77464447021484375000e+02) (7, -1.07876495361328125000e+02) (8, 1.03335498046875000000e+03) (9, 1.49924011230468750000e+03) (10, -1.50000000000000000000e+03) (11, 5.90070556640625000000e+02) (12, -1.32728088378906250000e+03) (13, -1.32728088378906250000e+03) (14, 1.50000000000000000000e+03) (15, -1.49998095703125000000e+03) (16, -8.18272173404693603516e-01) (17, -2.56258201599121093750e+01) (18, -5.77692260742187500000e+02) (19, 1.50000000000000000000e+03) (20, 1.00436830520629882812e+00) (21, -5.45280754566192626953e-01) (22, -2.46426715850830078125e+01) (23, 2.39053201675415039062e+00) (24, -9.86300563812255859375e+00) (25, -7.00675868988037109375e+00) (26, -8.16109943389892578125e+00) (27, 4.77507114410400390625e+00) (28, -1.48770202636718750000e+03) (29, 7.58902893066406250000e+01) (30, -1.14601269531250000000e+03) (31, 1.21963462829589843750e+02) (32, 8.06627750396728515625e+00) (33, 7.04195922851562500000e+02) (34, 1.50000000000000000000e+03) (35, 1.50000000000000000000e+03) (36, -1.58637189865112304688e+00) (37, -6.58917188644409179688e-01) (38, 1.00843605041503906250e+02) (39, -5.77741333007812500000e+02) (40, 5.74697256088256835938e+00) (41, -1.99754968285560607910e-01) (42, 1.79067039489746093750e+00) (43, 5.48115873336791992188e+00) (44, -4.41251640319824218750e+01) (45, 3.29300689697265625000e+02) (46, 3.87902755737304687500e+01) (47, -1.90791523456573486328e+00) (48, -5.42390785217285156250e+01) (49, -1.36755517578125000000e+03) (50, 1.50000000000000000000e+03) (51, 1.50000000000000000000e+03) (52, 6.74151897430419921875e+00) (53, 7.80790023803710937500e+01) (54, -1.49913586425781250000e+03) (55, 1.50000000000000000000e+03) (56, -3.44150161743164062500e+00) (57, 4.63608384132385253906e-01) (58, 2.61698532104492187500e+00) (59, -2.19953479766845703125e+01) (60, 5.38721801757812500000e+02) (61, -2.39400463104248046875e+01) (62, -1.61485445499420166016e+00) (63, 6.31569266319274902344e-01) (64, 3.98143172264099121094e-01) (0, 2.38972559571266174316e-01) (1, -2.66567459106445312500e+01) (2, 9.56218261718750000000e+02) (3, 1.50000000000000000000e+03) (4, -1.18461394309997558594e+00) (5, -1.43291692733764648438e+01) (6, -1.66054260253906250000e+02) (7, -6.88914550781250000000e+02) (8, -1.24791711425781250000e+03) (9, 1.49734301757812500000e+03) (10, -1.50000000000000000000e+03) (11, 3.30852844238281250000e+02) (12, -1.32728088378906250000e+03) (13, -1.32728088378906250000e+03) (14, 1.50000000000000000000e+03) (15, -1.49998095703125000000e+03) (16, 1.16437184810638427734e+00) (17, 4.66509780883789062500e+01) (18, -9.91529602050781250000e+02) (19, 1.50000000000000000000e+03) (20, 2.44023561477661132812e+00) (21, -1.04043149948120117188e+00) (22, -1.00141868591308593750e+02) (23, 8.81386413574218750000e+02) (24, 2.71226310729980468750e+01) (25, -4.87582969665527343750e+00) (26, 4.83848648071289062500e+01) (27, -3.43151916503906250000e+02) (28, -1.43828295898437500000e+03) (29, 3.99624176025390625000e+02) (30, -1.50000000000000000000e+03) (31, 6.65201950073242187500e+01) (32, -7.01350784301757812500e+00) (33, -1.49852893066406250000e+03) (34, 1.50000000000000000000e+03) (35, 1.50000000000000000000e+03) (36, 3.48735541105270385742e-01) (37, -2.75238186120986938477e-01) (38, -3.35208129882812500000e+01) (39, -9.91529602050781250000e+02) (40, 5.64159631729125976562e-01) (41, 6.82705044746398925781e-01) (42, -8.52199435234069824219e-01) (43, 6.61364126205444335938e+00) (44, -9.97317749023437500000e+02) (45, 1.28535736083984375000e+02) (46, 9.67973041534423828125e+00) (47, -1.29843816757202148438e+01) (48, 3.92055549621582031250e+01) (49, -1.50000000000000000000e+03) (50, 1.50000000000000000000e+03) (51, 1.50000000000000000000e+03) (52, 4.58573627471923828125e+00) (53, -2.53711883544921875000e+02) (54, 1.29165527343750000000e+03) (55, 1.50000000000000000000e+03) (56, -4.45304584503173828125e+00) (57, 4.33397197723388671875e+00) (58, -1.67699539661407470703e+00) (59, -6.05504608154296875000e+01) (60, -8.84122314453125000000e+02) (61, -2.19358177185058593750e+01) (62, 6.85766637325286865234e-01) (63, 3.14482378959655761719e+00) (64, -5.62947988510131835938e-01) (65, 9.59570598602294921875e+00) (66, 2.01352691650390625000e+01) (67, 1.32005071640014648438e+01) (68, 4.28085947036743164062e+00) (65, -1.03763408660888671875e+01) (66, -1.50836098194122314453e+00) (67, -1.64432640075683593750e+01) (68, -4.60451936721801757812e+00) 
